digraph Tree {
node [shape=box, style="filled, rounded", color="black", fontname="helvetica"] ;
edge [fontname="helvetica"] ;
0 [label="agelevel <= 0.5\nentropy = 0.94\nsamples = 14\nvalue = [5, 9]\nclass = yes", fillcolor="#a7d3f3"] ;
1 [label="entropy = 0.0\nsamples = 4\nvalue = [0, 4]\nclass = yes", fillcolor="#399de5"] ;
0 -> 1 [labeldistance=2.5, labelangle=45, headlabel="True"] ;
2 [label="student <= 0.5\nentropy = 1.0\nsamples = 10\nvalue = [5, 5]\nclass = no", fillcolor="#ffffff"] ;
0 -> 2 [labeldistance=2.5, labelangle=-45, headlabel="False"] ;
3 [label="agelevel <= 1.5\nentropy = 0.72\nsamples = 5\nvalue = [4, 1]\nclass = no", fillcolor="#eca06a"] ;
2 -> 3 ;
4 [label="entropy = 1.0\nsamples = 2\nvalue = [1, 1]\nclass = no", fillcolor="#ffffff"] ;
3 -> 4 ;
5 [label="entropy = 0.0\nsamples = 3\nvalue = [3, 0]\nclass = no", fillcolor="#e58139"] ;
3 -> 5 ;
6 [label="credit <= 0.5\nentropy = 0.72\nsamples = 5\nvalue = [1, 4]\nclass = yes", fillcolor="#6ab6ec"] ;
2 -> 6 ;
7 [label="entropy = 1.0\nsamples = 2\nvalue = [1, 1]\nclass = no", fillcolor="#ffffff"] ;
6 -> 7 ;
8 [label="entropy = 0.0\nsamples = 3\nvalue = [0, 3]\nclass = yes", fillcolor="#399de5"] ;
6 -> 8 ;
}